4 100
他 -0.041915 -0.184417 -0.121074 0.192018 0.042113 0.157147 0.105640 0.131374 -0.040844 0.040691 0.171435 0.191974 -0.324962 -0.080389 0.036069 0.292457 0.099463 -0.151685 0.237953 0.172396 0.026084 0.019674 0.110527 -0.012165 -0.146102 -0.281209 0.202001 0.166639 0.220550 0.202912 0.058212 -0.241031 -0.144531 0.084860 0.071934 0.173639 -0.223063 0.097361 -0.132387 -0.351050 0.025842 0.740051 -0.121825 0.150134 -0.167124 0.330000 -0.370608 0.123987 -0.346157 0.244625 -0.211828 0.105409 0.153494 -0.214179 0.147168 0.322662 0.313864 -0.183002 0.052664 -0.258073 0.352798 0.047112 0.249536 0.046806 0.094010 -0.006099 -0.021223 -0.119801 0.383433 0.082869 -0.097979 -0.057441 -0.241105 -0.013601 -0.299642 0.043355 -0.287649 -0.127885 0.219298 0.351519 -0.006767 0.186302 0.224661 -0.106941 -0.289023 -0.041100 -0.232131 0.381758 -0.009707 0.103991 -0.083467 -0.118889 0.176344 0.495070 -0.066387 0.099387 -0.102214 0.178389 -0.402044 0.347763
我们 -0.185870 -0.366663 -0.082417 0.069777 0.261542 0.293019 0.005647 0.195520 0.256448 0.136228 0.089272 0.290644 -0.177303 -0.241296 0.227373 0.345809 -0.329634 -0.359060 0.112994 -0.063284 0.276658 -0.273020 -0.083719 0.172211 -0.196748 0.257138 0.289350 -0.036186 0.103926 0.254956 0.240653 -0.310252 0.147378 0.015523 -0.011582 -0.109464 -0.181621 0.114068 -0.104500 -0.487434 -0.108283 0.680453 -0.246009 -0.110859 -0.193029 0.142877 -0.384686 0.271702 -0.119493 0.194519 -0.111222 0.023975 0.006281 -0.184783 -0.058234 0.089136 0.201044 -0.237790 0.166206 -0.641164 0.472792 0.004413 0.482381 -0.069131 -0.188779 -0.110434 -0.179995 -0.099731 0.204170 -0.072484 0.025304 -0.224835 -0.118333 0.077224 -0.180300 -0.050702 -0.251570 -0.012685 0.054546 0.501268 -0.069433 0.197218 0.219609 0.012989 -0.338202 0.005622 -0.289535 0.542324 -0.000604 0.146577 -0.070502 -0.233879 0.321891 0.319807 -0.146397 -0.275359 -0.239431 0.398527 -0.331293 0.111256
人 -0.257180 -0.485250 0.271799 0.081439 0.131933 -0.014890 0.147252 0.181169 -0.220689 -0.215511 -0.084847 0.177469 -0.225613 -0.390110 0.282738 0.223061 -0.114288 -0.057601 -0.089947 0.429222 0.107713 0.167849 0.066186 -0.092622 0.312031 -0.214608 -0.025497 -0.099241 0.065960 -0.279445 -0.041133 -0.540662 0.067924 0.194595 0.206238 0.268201 0.088944 0.052152 0.062891 0.160769 0.016038 0.342801 0.237142 0.284397 -0.829518 0.706349 -0.309101 0.287270 -0.226939 0.476571 -0.116165 0.071132 0.263804 0.169902 -0.175714 -0.054114 -0.241055 -0.445283 0.074157 -0.358193 0.610358 0.307020 -0.166121 -0.213520 0.001889 0.209138 0.048370 -0.207769 0.143394 -0.232227 0.013283 -0.292671 0.295547 -0.066451 -0.322183 0.037159 -0.437466 -0.113865 0.261225 0.360290 0.145862 0.003467 -0.029540 -0.078390 -0.342684 0.294547 -0.020221 0.428630 0.018241 -0.000776 0.034266 -0.138576 0.175515 0.062925 0.025056 -0.100053 -0.626632 -0.088454 -0.311543 0.256749
使 0.209513 -0.410543 -0.341633 0.129684 0.299201 -0.018276 -0.283226 0.301245 0.061601 0.100363 -0.024601 0.073637 -0.026372 -0.408014 0.102688 0.300732 0.318699 -0.075964 0.065663 -0.261866 0.088971 -0.068939 -0.288483 -0.090471 0.242882 0.118098 0.258915 -0.071969 0.347533 0.065329 -0.008881 -0.364433 0.269602 -0.113624 0.140458 0.011354 -0.020082 -0.027476 0.003632 -0.113736 -0.310806 0.365350 0.169339 -0.372273 -0.147013 -0.070923 0.137299 0.166078 -0.499553 0.013354 -0.491521 -0.052504 0.220343 0.128630 -0.083143 -0.046091 0.294941 -0.326509 -0.275872 -0.291184 0.414170 -0.188360 -0.289974 0.167838 0.158634 0.306677 -0.392699 -0.413491 0.189208 -0.068369 0.050569 -0.117374 -0.019644 0.209374 -0.166946 0.068873 -0.296147 -0.177675 0.308507 0.175257 -0.049720 0.187806 0.182785 0.261997 0.001941 0.196026 -0.373374 0.112974 -0.021002 0.203509 -0.094070 0.090214 0.253149 0.274638 0.154286 0.012010 -0.423430 0.129769 0.133912 0.310714